module.exports = function anonymous(rawInput
) {

  var input = rawInput;
  var json = {"type":"LSTMTimeStep","options":{"inputSize":1,"hiddenLayers":[20],"outputSize":1,"decayRate":0.999,"smoothEps":1e-8,"regc":0.000001,"clipval":5},"hiddenLayers":[{"inputMatrix":{"rows":20,"columns":1,"weights":{"0":0.4512350559234619,"1":0.4177727997303009,"2":0.5026789307594299,"3":0.4792736768722534,"4":-0.15941938757896423,"5":0.48601874709129333,"6":0.3840462565422058,"7":0.43023788928985596,"8":-0.13180166482925415,"9":0.1682446300983429,"10":0.48467129468917847,"11":-0.8378761410713196,"12":-0.13327598571777344,"13":0.47501128911972046,"14":-0.25645583868026733,"15":0.49572131037712097,"16":0.46918001770973206,"17":-0.6389549374580383,"18":0.4752768576145172,"19":-0.6644084453582764}},"inputHidden":{"rows":20,"columns":20,"weights":{"0":-0.09198509901762009,"1":0.24895988404750824,"2":0.18822038173675537,"3":0.20908674597740173,"4":0.16083106398582458,"5":0.08476586639881134,"6":-0.23234744369983673,"7":0.19273805618286133,"8":-0.3807890713214874,"9":0.5664207339286804,"10":-0.12721844017505646,"11":0.5583496689796448,"12":0.011282541789114475,"13":-0.08326399326324463,"14":-0.0819738507270813,"15":-0.24614931643009186,"16":-0.09014802426099777,"17":1.2131191492080688,"18":0.26152756810188293,"19":-0.6089357137680054,"20":-0.06145334988832474,"21":-0.15806102752685547,"22":0.20713098347187042,"23":0.22223083674907684,"24":1.862413763999939,"25":0.16711105406284332,"26":-0.025666281580924988,"27":0.1802760511636734,"28":-2.4863483905792236,"29":2.6699533462524414,"30":-0.1258624941110611,"31":0.6201521754264832,"32":-2.7686843872070312,"33":-0.206705242395401,"34":-1.8013523817062378,"35":-0.16544786095619202,"36":-0.13679394125938416,"37":0.3484126925468445,"38":0.17707060277462006,"39":-0.7240338921546936,"40":-0.3009096384048462,"41":0.1718011200428009,"42":0.44862571358680725,"43":0.263565331697464,"44":0.59076327085495,"45":0.21617917716503143,"46":-0.2706040143966675,"47":0.2448788434267044,"48":-0.8172135353088379,"49":1.000243067741394,"50":-0.29321569204330444,"51":0.4287373423576355,"52":-0.6559317111968994,"53":-0.2577541768550873,"54":-0.4087182283401489,"55":-0.39787328243255615,"56":-0.3519185483455658,"57":0.44460147619247437,"58":0.30214259028434753,"59":-0.6632788181304932,"60":-0.08896752446889877,"61":0.37607017159461975,"62":0.3450475037097931,"63":0.25977131724357605,"64":0.21452869474887848,"65":0.12716490030288696,"66":-0.24507923424243927,"67":0.33789679408073425,"68":-0.4787708520889282,"69":0.6031532287597656,"70":-0.22808898985385895,"71":0.024608055129647255,"72":-0.07145322114229202,"73":-0.05866650491952896,"74":-0.08177515119314194,"75":-0.36767151951789856,"76":-0.14799891412258148,"77":0.5868468284606934,"78":0.28871381282806396,"79":0.03121965192258358,"80":-0.15999700129032135,"81":0.27140215039253235,"82":0.009880120866000652,"83":0.09303193539381027,"84":-0.8015658855438232,"85":0.31529319286346436,"86":-0.17421476542949677,"87":0.024554578587412834,"88":0.9399930834770203,"89":-0.9780376553535461,"90":-0.3562277555465698,"91":0.2378421574831009,"92":0.8385778665542603,"93":-0.2281394898891449,"94":0.6147331595420837,"95":-0.02902442030608654,"96":-0.14762555062770844,"97":0.24382135272026062,"98":0.053276270627975464,"99":-0.11642725765705109,"100":-0.05738997086882591,"101":0.32543352246284485,"102":0.3557448983192444,"103":0.25020939111709595,"104":0.2377665787935257,"105":0.12059030681848526,"106":-0.2917541563510895,"107":0.2521806061267853,"108":-0.515762984752655,"109":0.5438204407691956,"110":-0.23130099475383759,"111":0.6304011344909668,"112":-0.09514988958835602,"113":-0.11062031984329224,"114":-0.17924031615257263,"115":-0.3121638298034668,"116":-0.12498249858617783,"117":1.1501611471176147,"118":0.16651172935962677,"119":-0.7232005596160889,"120":-0.02607538364827633,"121":0.06735938787460327,"122":0.33220136165618896,"123":0.14176294207572937,"124":1.0340818166732788,"125":0.08851777017116547,"126":-0.1789703220129013,"127":0.11296423524618149,"128":-1.2289040088653564,"129":1.421761155128479,"130":-0.08955320715904236,"131":0.5852177143096924,"132":-1.4773571491241455,"133":-0.05802815034985542,"134":-1.0517717599868774,"135":-0.16967839002609253,"136":-0.08525384962558746,"137":0.6344788670539856,"138":0.31614017486572266,"139":-0.9381470084190369,"140":-0.2324446141719818,"141":0.0877440944314003,"142":0.37070369720458984,"143":0.19407692551612854,"144":0.781779408454895,"145":0.2070462703704834,"146":-0.13226032257080078,"147":0.23131754994392395,"148":-1.0924301147460938,"149":1.0826791524887085,"150":-0.18022210896015167,"151":0.5620248913764954,"152":-1.0405651330947876,"153":-0.10999207943677902,"154":-0.6617076992988586,"155":-0.20601506531238556,"156":-0.09539973735809326,"157":0.5497080683708191,"158":0.2462138533592224,"159":-0.6710919737815857,"160":-0.37822583317756653,"161":0.047743991017341614,"162":-0.038291167467832565,"163":0.41313695907592773,"164":-0.9651051163673401,"165":0.4728879928588867,"166":-0.2364230901002884,"167":0.21099340915679932,"168":0.9107728004455566,"169":-1.106726050376892,"170":-0.42680153250694275,"171":-0.6269027590751648,"172":1.1148710250854492,"173":-0.4310165047645569,"174":1.0950056314468384,"175":-0.04646962508559227,"176":-0.34011387825012207,"177":-0.8237043619155884,"178":0.04428950697183609,"179":0.7181028723716736,"180":-0.07876816391944885,"181":-0.39445561170578003,"182":-0.31182271242141724,"183":0.041019365191459656,"184":-1.0610544681549072,"185":0.054824866354465485,"186":0.05411848798394203,"187":-0.09150221198797226,"188":1.012302279472351,"189":-1.0578161478042603,"190":-0.07906413823366165,"191":-0.8668220639228821,"192":0.8551057577133179,"193":-0.10555175691843033,"194":1.0968745946884155,"195":0.19890199601650238,"196":-0.015147663652896881,"197":-1.0199742317199707,"198":-0.3513171076774597,"199":0.9598094820976257,"200":-0.09371740370988846,"201":0.32206276059150696,"202":0.32531827688217163,"203":0.24554623663425446,"204":0.2780947983264923,"205":0.10088630020618439,"206":-0.2548859417438507,"207":0.2935996651649475,"208":-0.5623251795768738,"209":0.7362454533576965,"210":-0.22502002120018005,"211":0.6135762333869934,"212":-0.33958837389945984,"213":-0.18798202276229858,"214":-0.28507885336875916,"215":-0.29454532265663147,"216":-0.11548009514808655,"217":0.9238232374191284,"218":0.2315790057182312,"219":-0.8050491213798523,"220":-0.09066839516162872,"221":0.7212942838668823,"222":0.6819769740104675,"223":0.0858965814113617,"224":-0.8106845021247864,"225":0.11336571723222733,"226":-0.4435182809829712,"227":0.4364698529243469,"228":0.5978338718414307,"229":-0.4513302743434906,"230":-0.13288317620754242,"231":0.12304122745990753,"232":0.6200072169303894,"233":-0.04541346803307533,"234":0.6879788637161255,"235":-0.5868310332298279,"236":-0.0208795927464962,"237":0.4262385666370392,"238":0.4497467875480652,"239":0.06635410338640213,"240":-0.45609208941459656,"241":0.14281758666038513,"242":0.12249703705310822,"243":0.24257683753967285,"244":-1.622916579246521,"245":0.40140554308891296,"246":-0.28121253848075867,"247":0.22067534923553467,"248":1.3908714056015015,"249":-1.3886559009552002,"250":-0.5961494445800781,"251":-0.24422705173492432,"252":1.2108908891677856,"253":-0.4446483552455902,"254":1.5825601816177368,"255":-0.021128572523593903,"256":-0.3363212049007416,"257":0.06136360019445419,"258":-0.04510880261659622,"259":0.10308010131120682,"260":-0.12247604131698608,"261":0.3626129925251007,"262":0.21919085085391998,"263":0.17635338008403778,"264":0.10981232672929764,"265":0.23098886013031006,"266":-0.34116604924201965,"267":0.27838918566703796,"268":-0.4186640679836273,"269":0.48538121581077576,"270":-0.18847712874412537,"271":0.4108406603336334,"272":-0.03467584028840065,"273":-0.11405628174543381,"274":-0.27472856640815735,"275":-0.2272266447544098,"276":-0.1612965613603592,"277":1.201781153678894,"278":0.31910112500190735,"279":-0.5678490996360779,"280":-0.1422886848449707,"281":0.33739155530929565,"282":0.16195812821388245,"283":0.09892218559980392,"284":-1.000232219696045,"285":0.14525897800922394,"286":-0.23982615768909454,"287":0.21709461510181427,"288":1.107395887374878,"289":-0.9173968434333801,"290":-0.3140404522418976,"291":0.22970080375671387,"292":1.0081168413162231,"293":-0.01791919209063053,"294":0.7728638648986816,"295":-0.003647284582257271,"296":-0.11204247176647186,"297":0.7005863189697266,"298":-0.057843826711177826,"299":-0.2105136513710022,"300":-0.1382800191640854,"301":0.2471034973859787,"302":0.42456623911857605,"303":0.29162564873695374,"304":0.36981120705604553,"305":0.17725741863250732,"306":-0.2169574499130249,"307":0.3563210964202881,"308":-0.7632361054420471,"309":0.8941497206687927,"310":-0.31552112102508545,"311":0.6272406578063965,"312":-0.43854478001594543,"313":-0.27568358182907104,"314":-0.33735865354537964,"315":-0.386861115694046,"316":-0.23710593581199646,"317":0.5941510796546936,"318":0.3466395139694214,"319":-0.5678924918174744,"320":-0.09446965903043747,"321":0.3094559609889984,"322":0.3601720631122589,"323":0.14428453147411346,"324":0.2480403184890747,"325":0.2032753974199295,"326":-0.34626731276512146,"327":0.2408951371908188,"328":-0.44952839612960815,"329":0.5523855090141296,"330":-0.20260699093341827,"331":0.16090990602970123,"332":0.07262013852596283,"333":-0.03792469948530197,"334":-0.09419680386781693,"335":-0.22032348811626434,"336":-0.09636931866407394,"337":0.7426919341087341,"338":0.3000628650188446,"339":-0.17005804181098938,"340":-0.4748794734477997,"341":-0.09132122248411179,"342":0.11274192482233047,"343":0.5438997745513916,"344":-0.4064074456691742,"345":0.4297201335430145,"346":-0.2814430296421051,"347":0.3396395146846771,"348":0.24473607540130615,"349":-0.33229684829711914,"350":-0.3531363010406494,"351":-0.06173574551939964,"352":0.41086217761039734,"353":-0.4747943580150604,"354":0.4909733533859253,"355":-0.12335389852523804,"356":-0.39330732822418213,"357":0.15187831223011017,"358":0.22505401074886322,"359":0.28045040369033813,"360":-0.3212834596633911,"361":0.34964996576309204,"362":0.5097572207450867,"363":0.39693668484687805,"364":0.13492704927921295,"365":0.2063593864440918,"366":-0.3489416241645813,"367":0.44825464487075806,"368":-0.6289283633232117,"369":0.7776458859443665,"370":-0.3028019964694977,"371":-0.11616647243499756,"372":-0.1338975876569748,"373":-0.29013267159461975,"374":0.04660440608859062,"375":-0.37898001074790955,"376":-0.28083139657974243,"377":0.3999253213405609,"378":0.5603761672973633,"379":0.18854033946990967,"380":-0.2812834084033966,"381":0.6497676372528076,"382":0.572409987449646,"383":0.26556339859962463,"384":-0.6413754224777222,"385":0.3496953547000885,"386":-0.49365997314453125,"387":0.4704227149486542,"388":0.6448697447776794,"389":-0.4264194369316101,"390":-0.3760315477848053,"391":0.19191625714302063,"392":0.6730130314826965,"393":-0.2595753073692322,"394":0.6222261190414429,"395":-0.5084151029586792,"396":-0.31112414598464966,"397":0.35453328490257263,"398":0.29029372334480286,"399":0.32281699776649475}},"inputBias":{"rows":20,"columns":1,"weights":{"0":-1.2549922466278076,"1":0.02627110294997692,"2":-0.15628784894943237,"3":-1.301817536354065,"4":0.19534096121788025,"5":-1.293268084526062,"6":-0.8750696778297424,"7":-0.774057149887085,"8":0.8741663694381714,"9":0.8922358155250549,"10":-1.2689967155456543,"11":-0.4034985601902008,"12":0.5067209601402283,"13":-1.2926537990570068,"14":0.08502667397260666,"15":-0.32559099793434143,"16":-1.3465216159820557,"17":0.019544236361980438,"18":-0.06835842877626419,"19":-0.35925889015197754}},"forgetMatrix":{"rows":20,"columns":1,"weights":{"0":0.5889019966125488,"1":0.5674117803573608,"2":0.5272871851921082,"3":0.5320124626159668,"4":0.300113320350647,"5":0.593485951423645,"6":0.5857489705085754,"7":0.5553987622261047,"8":0.13052570819854736,"9":0.03187979757785797,"10":0.5855672359466553,"11":-0.21480941772460938,"12":0.28678539395332336,"13":0.5148773789405823,"14":0.32265567779541016,"15":0.5053690671920776,"16":0.5417805910110474,"17":-0.6001542210578918,"18":0.4048021733760834,"19":-0.17694084346294403}},"forgetHidden":{"rows":20,"columns":20,"weights":{"0":-0.20406179130077362,"1":0.4319763779640198,"2":0.4832974970340729,"3":0.34435218572616577,"4":0.11447010934352875,"5":0.31277787685394287,"6":-0.3514792025089264,"7":0.43215492367744446,"8":-0.3312966525554657,"9":0.43931806087493896,"10":-0.3001595139503479,"11":0.14238746464252472,"12":0.20766671001911163,"13":-0.19093041121959686,"14":0.03381812199950218,"15":-0.4720301330089569,"16":-0.35241562128067017,"17":0.36273321509361267,"18":0.4048300087451935,"19":-0.2574823796749115,"20":-0.03709309548139572,"21":-0.040878646075725555,"22":-0.09610724449157715,"23":-0.0036630751565098763,"24":0.33466488122940063,"25":-0.008274332620203495,"26":0.0673268735408783,"27":-0.05645474046468735,"28":-0.9232030510902405,"29":0.927336573600769,"30":-0.014614595100283623,"31":0.2828953266143799,"32":-0.980087161064148,"33":-0.06671946495771408,"34":-0.20484992861747742,"35":0.008705288171768188,"36":-0.01789911277592182,"37":0.10900665819644928,"38":0.06741955876350403,"39":-0.3509971499443054,"40":-0.16017292439937592,"41":0.11166717857122421,"42":0.22400638461112976,"43":0.14819899201393127,"44":0.16658534109592438,"45":0.15111905336380005,"46":-0.19385765492916107,"47":0.24648070335388184,"48":-0.528795599937439,"49":0.589245617389679,"50":-0.2281908541917801,"51":0.3087834417819977,"52":-0.31615984439849854,"53":-0.2597302198410034,"54":-0.13753314316272736,"55":-0.2108706831932068,"56":-0.15094517171382904,"57":0.21137715876102448,"58":0.2412976771593094,"59":-0.46334317326545715,"60":-0.1950523853302002,"61":0.364940345287323,"62":0.375064492225647,"63":0.16841083765029907,"64":-0.018065178766846657,"65":0.14759358763694763,"66":-0.18518412113189697,"67":0.3472733795642853,"68":-0.1896694451570511,"69":0.22992531955242157,"70":-0.2067747712135315,"71":0.03473876789212227,"72":0.2055414766073227,"73":-0.11812330782413483,"74":0.12099689245223999,"75":-0.2790016531944275,"76":-0.16030102968215942,"77":0.4026773273944855,"78":0.3378121256828308,"79":0.056613340973854065,"80":1.006034255027771,"81":0.0577717125415802,"82":-0.056675516068935394,"83":-0.9338961839675903,"84":-0.08051644265651703,"85":-0.9311321973800659,"86":0.4762502610683441,"87":-0.3860149383544922,"88":-0.00844856072217226,"89":0.142673522233963,"90":0.9163202047348022,"91":0.0698099359869957,"92":0.06371697783470154,"93":1.0849233865737915,"94":-0.07230766862630844,"95":0.17064650356769562,"96":0.8781871199607849,"97":0.45291244983673096,"98":-0.23074549436569214,"99":-0.15330326557159424,"100":-0.30028313398361206,"101":0.4568063020706177,"102":0.47401541471481323,"103":0.2992549538612366,"104":0.14404024183750153,"105":0.2835964262485504,"106":-0.2824326455593109,"107":0.3417610228061676,"108":-0.3209713399410248,"109":0.36671268939971924,"110":-0.22661350667476654,"111":0.06733079254627228,"112":0.20566856861114502,"113":-0.2905281186103821,"114":0.05968727543950081,"115":-0.3762180507183075,"116":-0.19653280079364777,"117":0.3657822012901306,"118":0.42013001441955566,"119":-0.2808249294757843,"120":-0.13835842907428741,"121":0.2068142592906952,"122":0.20161829888820648,"123":0.12962324917316437,"124":0.5652032494544983,"125":0.15024253726005554,"126":-0.1446503847837448,"127":0.15639379620552063,"128":-0.8276048302650452,"129":0.9006498456001282,"130":-0.12138710916042328,"131":0.28689172863960266,"132":-0.9423258304595947,"133":-0.18574512004852295,"134":-0.40443748235702515,"135":-0.1939409077167511,"136":-0.2253832221031189,"137":0.29932352900505066,"138":0.2279900163412094,"139":-0.5176948308944702,"140":-0.14452120661735535,"141":0.11952861398458481,"142":0.2908534109592438,"143":0.10419639199972153,"144":0.365563303232193,"145":0.22184307873249054,"146":-0.1416916847229004,"147":0.10682171583175659,"148":-0.6782547831535339,"149":0.7070737481117249,"150":-0.17860516905784607,"151":0.25789186358451843,"152":-0.6294811964035034,"153":-0.15980254113674164,"154":-0.32476529479026794,"155":-0.2820471227169037,"156":-0.07038651406764984,"157":0.3213619887828827,"158":0.2013491690158844,"159":-0.4913342595100403,"160":0.48277148604393005,"161":-0.8654319047927856,"162":-0.5846514105796814,"163":-0.39618879556655884,"164":0.2915633022785187,"165":-0.40939661860466003,"166":0.6029794216156006,"167":-0.46878156065940857,"168":-0.33262765407562256,"169":0.4387219250202179,"170":0.538702130317688,"171":0.2796863317489624,"172":-0.6542921662330627,"173":0.4388892352581024,"174":-0.29664093255996704,"175":0.41270720958709717,"176":0.392732173204422,"177":-0.20574851334095,"178":-0.4698867201805115,"179":-0.09930703788995743,"180":0.8979459404945374,"181":-1.553649663925171,"182":-0.8451578617095947,"183":-0.7980234026908875,"184":0.9883993268013,"185":-0.7716771364212036,"186":0.965295672416687,"187":-0.7205289602279663,"188":-1.0379817485809326,"189":1.2136470079421997,"190":0.9199730157852173,"191":0.31740832328796387,"192":-1.3525089025497437,"193":0.8074426054954529,"194":-0.7273285388946533,"195":0.7241443395614624,"196":0.7503761053085327,"197":0.06002560630440712,"198":-0.6315862536430359,"199":-0.39300552010536194,"200":-0.18679451942443848,"201":0.3326789140701294,"202":0.36499565839767456,"203":0.2747509181499481,"204":0.27427950501441956,"205":0.2903110980987549,"206":-0.2998462915420532,"207":0.2938683032989502,"208":-0.47256919741630554,"209":0.4477759003639221,"210":-0.2896275520324707,"211":0.11830263584852219,"212":-0.08954403549432755,"213":-0.1568273901939392,"214":-0.12076226621866226,"215":-0.24983952939510345,"216":-0.18377730250358582,"217":0.3211374282836914,"218":0.4352635443210602,"219":-0.34574535489082336,"220":0.0014828353887423873,"221":0.14048057794570923,"222":0.15829874575138092,"223":-0.09101172536611557,"224":-0.4094196557998657,"225":-0.025240708142518997,"226":-0.13284555077552795,"227":0.1809682697057724,"228":0.28147491812705994,"229":-0.26794296503067017,"230":-0.0357777364552021,"231":-0.08960223197937012,"232":0.27532652020454407,"233":0.10999877005815506,"234":0.25525063276290894,"235":-0.16357851028442383,"236":0.09494112432003021,"237":-0.011243323795497417,"238":-0.02034648507833481,"239":0.3183484375476837,"240":0.8520863056182861,"241":-0.16547802090644836,"242":-0.4079554080963135,"243":-0.8060768246650696,"244":-0.37798163294792175,"245":-0.8960486650466919,"246":0.572627604007721,"247":-0.5047622919082642,"248":0.36774808168411255,"249":-0.28479889035224915,"250":0.7853108048439026,"251":0.31402096152305603,"252":0.2506362795829773,"253":1.0000348091125488,"254":0.32345473766326904,"255":0.5684134364128113,"256":0.7893072366714478,"257":0.3870088756084442,"258":-0.42586657404899597,"259":-0.320013165473938,"260":-0.13686487078666687,"261":0.5202319622039795,"262":0.4281333088874817,"263":0.23937374353408813,"264":0.15365265309810638,"265":0.25457024574279785,"266":-0.3683827519416809,"267":0.33662089705467224,"268":-0.30823183059692383,"269":0.3514222502708435,"270":-0.29823753237724304,"271":0.11779998242855072,"272":0.3039284646511078,"273":-0.2010156512260437,"274":-0.032298702746629715,"275":-0.3876343071460724,"276":-0.12731297314167023,"277":0.31253448128700256,"278":0.33312153816223145,"279":-0.06397207081317902,"280":0.8280012607574463,"281":0.15809574723243713,"282":-0.04964854195713997,"283":-0.831255316734314,"284":-0.18980900943279266,"285":-0.7703170776367188,"286":0.4436897933483124,"287":-0.38924989104270935,"288":0.22873228788375854,"289":-0.07605588436126709,"290":0.8388760089874268,"291":0.14203093945980072,"292":0.15829850733280182,"293":0.9172120094299316,"294":-0.007003376726061106,"295":0.09170220047235489,"296":0.8469841480255127,"297":0.3497145473957062,"298":-0.19977983832359314,"299":-0.06741504371166229,"300":-0.08115121722221375,"301":0.1285138577222824,"302":0.15887461602687836,"303":0.22959868609905243,"304":0.14018243551254272,"305":0.08903264254331589,"306":-0.1431831419467926,"307":0.1290281116962433,"308":-0.4028805196285248,"309":0.5202456116676331,"310":-0.17346236109733582,"311":0.29838699102401733,"312":-0.28633803129196167,"313":-0.1658180207014084,"314":-0.011099454015493393,"315":-0.20319506525993347,"316":-0.18889449536800385,"317":0.3288762867450714,"318":0.248720183968544,"319":-0.4235673248767853,"320":-0.23516175150871277,"321":0.3050002455711365,"322":0.3863300383090973,"323":0.22367382049560547,"324":0.06298063695430756,"325":0.16593089699745178,"326":-0.1950424760580063,"327":0.28489816188812256,"328":-0.2737990617752075,"329":0.3417370915412903,"330":-0.25760579109191895,"331":0.14920002222061157,"332":0.21838612854480743,"333":-0.1618441641330719,"334":0.035893093794584274,"335":-0.3790278732776642,"336":-0.25571316480636597,"337":0.3150900900363922,"338":0.39672744274139404,"339":-0.08337841182947159,"340":-0.20878297090530396,"341":-0.09750932455062866,"342":0.07019182294607162,"343":0.31133171916007996,"344":0.18477462232112885,"345":0.2974972426891327,"346":-0.20478375256061554,"347":0.15638867020606995,"348":-0.0986470952630043,"349":0.08658068627119064,"350":-0.1730656623840332,"351":0.20109744369983673,"352":-0.03420945256948471,"353":-0.3120288550853729,"354":-0.18803562223911285,"355":-0.15687891840934753,"356":-0.28963834047317505,"357":0.168946772813797,"358":0.2548712491989136,"359":-0.0976913571357727,"360":-0.2135774940252304,"361":0.25997111201286316,"362":0.10847969353199005,"363":0.13701193034648895,"364":-0.16096483170986176,"365":0.17809522151947021,"366":-0.12960219383239746,"367":0.18075011670589447,"368":-0.20069065690040588,"369":0.21421962976455688,"370":-0.20894205570220947,"371":-0.07039573788642883,"372":0.33050912618637085,"373":-0.1737394779920578,"374":0.1334783434867859,"375":-0.10625536739826202,"376":-0.18899966776371002,"377":0.38652536273002625,"378":0.23876968026161194,"379":0.08049013465642929,"380":-0.14666403830051422,"381":0.37679344415664673,"382":0.310138076543808,"383":-0.01019094418734312,"384":-0.47977960109710693,"385":0.17524760961532593,"386":-0.31805554032325745,"387":0.3178844749927521,"388":0.43383416533470154,"389":-0.29954928159713745,"390":-0.18432258069515228,"391":0.0390641875565052,"392":0.4325143098831177,"393":-0.16453973948955536,"394":0.31769049167633057,"395":-0.36245423555374146,"396":-0.11736513674259186,"397":0.10166314989328384,"398":0.14258523285388947,"399":0.1866171956062317}},"forgetBias":{"rows":20,"columns":1,"weights":{"0":0,"1":0,"2":0,"3":0,"4":0,"5":0,"6":0,"7":0,"8":0,"9":0,"10":0,"11":0,"12":0,"13":0,"14":0,"15":0,"16":0,"17":0,"18":0,"19":0}},"outputMatrix":{"rows":20,"columns":1,"weights":{"0":0.5554998517036438,"1":0.44028928875923157,"2":0.5442460179328918,"3":0.5534121990203857,"4":-0.2222609668970108,"5":0.55537348985672,"6":0.5052779912948608,"7":0.5267013907432556,"8":-0.24982459843158722,"9":-0.2871062755584717,"10":0.5395753979682922,"11":-0.8403974175453186,"12":-0.11384550482034683,"13":0.556937038898468,"14":-0.19658631086349487,"15":0.5472729206085205,"16":0.6059930920600891,"17":-0.6430835723876953,"18":0.49882379174232483,"19":-0.5632379651069641}},"outputHidden":{"rows":20,"columns":20,"weights":{"0":-0.05001300200819969,"1":0.24889858067035675,"2":0.22360748052597046,"3":0.19479748606681824,"4":0.21326717734336853,"5":0.025863222777843475,"6":-0.22738274931907654,"7":0.3000091016292572,"8":-0.5697763562202454,"9":0.6717939376831055,"10":-0.06608211994171143,"11":0.41115042567253113,"12":0.06514622271060944,"13":0.02070799469947815,"14":-0.21610820293426514,"15":-0.1940731555223465,"16":-0.19492493569850922,"17":0.8401782512664795,"18":0.24759308993816376,"19":-0.6226733326911926,"20":-0.04495210945606232,"21":-0.010759293101727962,"22":0.16886287927627563,"23":0.13154244422912598,"24":0.9255623817443848,"25":0.1231599822640419,"26":-0.023175211623311043,"27":0.12696456909179688,"28":-1.5345573425292969,"29":1.8578730821609497,"30":-0.12357565760612488,"31":0.2527267038822174,"32":-1.8033617734909058,"33":-0.12526537477970123,"34":-0.6537179946899414,"35":-0.05806276947259903,"36":-0.07649317383766174,"37":0.18813656270503998,"38":0.13574305176734924,"39":-0.4137171506881714,"40":-0.21268044412136078,"41":0.10364414006471634,"42":0.20761719346046448,"43":0.23900707066059113,"44":0.6445690393447876,"45":0.2626207172870636,"46":-0.21344661712646484,"47":0.15241199731826782,"48":-1.0317727327346802,"49":1.028368592262268,"50":-0.12214534729719162,"51":0.46063724160194397,"52":-0.7463138103485107,"53":-0.18704865872859955,"54":-0.4175843596458435,"55":-0.19423902034759521,"56":-0.25855350494384766,"57":0.48447704315185547,"58":0.269950807094574,"59":-0.5843765139579773,"60":-0.07708179205656052,"61":0.2812552750110626,"62":0.28143954277038574,"63":0.12866750359535217,"64":0.2303205132484436,"65":0.18521453440189362,"66":-0.14413723349571228,"67":0.2711552679538727,"68":-0.5740164518356323,"69":0.6440434455871582,"70":-0.11058931797742844,"71":0.02643103525042534,"72":-0.002853907411918044,"73":-0.09945948421955109,"74":-0.15500281751155853,"75":-0.28078410029411316,"76":-0.18841953575611115,"77":0.4950026273727417,"78":0.3261859118938446,"79":-0.00864202156662941,"80":-0.179581880569458,"81":0.3861941397190094,"82":0.08827021718025208,"83":0.059139080345630646,"84":-1.267029047012329,"85":0.10339716821908951,"86":-0.25891438126564026,"87":0.10116488486528397,"88":1.3452072143554688,"89":-1.2810232639312744,"90":-0.25883999466896057,"91":-0.142743319272995,"92":1.2788136005401611,"93":-0.062089454382658005,"94":1.161787986755371,"95":0.034343402832746506,"96":-0.04842734336853027,"97":0.3138928711414337,"98":-0.09316661953926086,"99":0.16806834936141968,"100":-0.11854095757007599,"101":0.2822718620300293,"102":0.23775623738765717,"103":0.20752014219760895,"104":0.18476887047290802,"105":0.01591646671295166,"106":-0.12081614136695862,"107":0.2291257530450821,"108":-0.5715442895889282,"109":0.609573483467102,"110":-0.027314400300383568,"111":0.5037721991539001,"112":0.020393850281834602,"113":-0.10467803478240967,"114":-0.2452370971441269,"115":-0.15356475114822388,"116":-0.18611624836921692,"117":0.7747162580490112,"118":0.2039070427417755,"119":-0.6716787815093994,"120":-0.11649035662412643,"121":0.14466524124145508,"122":0.203228160738945,"123":0.11883389949798584,"124":1.1702371835708618,"125":0.159991055727005,"126":-0.15220747888088226,"127":0.09486199915409088,"128":-1.473331332206726,"129":1.6657606363296509,"130":-0.04213245213031769,"131":0.5727997422218323,"132":-1.6123837232589722,"133":-0.030167004093527794,"134":-1.088794231414795,"135":-0.22286583483219147,"136":-0.06985577940940857,"137":0.5871933698654175,"138":0.2530170679092407,"139":-0.7629852890968323,"140":-0.12590765953063965,"141":0.14559878408908844,"142":0.2065543681383133,"143":0.14473937451839447,"144":0.8512689471244812,"145":0.10469195246696472,"146":-0.10499490797519684,"147":0.2731378972530365,"148":-1.2402591705322266,"149":1.4231923818588257,"150":-0.08280587941408157,"151":0.36337557435035706,"152":-1.2522928714752197,"153":-0.11446848511695862,"154":-0.7872928977012634,"155":-0.2868698835372925,"156":-0.15838785469532013,"157":0.5008116364479065,"158":0.4079858660697937,"159":-0.6654636263847351,"160":-0.34696677327156067,"161":-0.020996900275349617,"162":-0.007869935594499111,"163":0.3999459445476532,"164":-0.9120495915412903,"165":0.3393675982952118,"166":-0.1555478572845459,"167":0.20797546207904816,"168":0.6937150359153748,"169":-0.705033540725708,"170":-0.3246012330055237,"171":-0.2878129482269287,"172":0.6045365333557129,"173":-0.3787602186203003,"174":1.0506398677825928,"175":-0.07090920954942703,"176":-0.27789002656936646,"177":-0.5400705933570862,"178":0.004282018169760704,"179":0.4217866361141205,"180":-0.5424054265022278,"181":-0.21080391108989716,"182":-0.1289181113243103,"183":0.4107566475868225,"184":-0.966252326965332,"185":0.5480501651763916,"186":-0.20765335857868195,"187":0.23340344429016113,"188":0.7493141889572144,"189":-0.834434449672699,"190":-0.4567677676677704,"191":-0.3590651750564575,"192":0.7890057563781738,"193":-0.5515735745429993,"194":1.2004526853561401,"195":-0.07801792025566101,"196":-0.3797577917575836,"197":-0.6222080588340759,"198":-0.15997707843780518,"199":0.6138898134231567,"200":-0.01396738551557064,"201":0.11995397508144379,"202":0.24508005380630493,"203":0.2145085632801056,"204":0.3125915229320526,"205":0.0364404171705246,"206":-0.04281831532716751,"207":0.1910480558872223,"208":-0.6688083410263062,"209":0.8252370953559875,"210":-0.026605915278196335,"211":0.42832252383232117,"212":-0.38399532437324524,"213":-0.05634787306189537,"214":-0.36969780921936035,"215":-0.21579530835151672,"216":-0.14294415712356567,"217":0.701646625995636,"218":0.2638548016548157,"219":-0.641183614730835,"220":-0.0076883714646101,"221":0.741247832775116,"222":0.6145433187484741,"223":0.08407729864120483,"224":-0.8084864616394043,"225":0.09459627419710159,"226":-0.5315834879875183,"227":0.4408589005470276,"228":0.7012279629707336,"229":-0.5019964575767517,"230":-0.11286522448062897,"231":-0.12759046256542206,"232":0.7791754007339478,"233":-0.030585438013076782,"234":0.8335186839103699,"235":-0.4882345497608185,"236":-0.10644247382879257,"237":0.3414990305900574,"238":0.3442370593547821,"239":0.19033117592334747,"240":-0.33924442529678345,"241":0.25194916129112244,"242":0.11660220474004745,"243":0.19078150391578674,"244":-1.9398709535598755,"245":0.44814226031303406,"246":-0.3729321360588074,"247":0.3189762830734253,"248":1.7986966371536255,"249":-1.7409002780914307,"250":-0.5660896301269531,"251":-0.21684813499450684,"252":1.5422557592391968,"253":-0.4673166275024414,"254":1.8146576881408691,"255":-0.0932498350739479,"256":-0.37213099002838135,"257":-0.020430760458111763,"258":-0.22278308868408203,"259":0.29194360971450806,"260":-0.12710446119308472,"261":0.23943884670734406,"262":0.24622727930545807,"263":0.12450302392244339,"264":0.2744598984718323,"265":0.04484047368168831,"266":-0.19624169170856476,"267":0.19450253248214722,"268":-0.39978495240211487,"269":0.5133686065673828,"270":-0.1296650469303131,"271":0.2794996500015259,"272":0.11534856259822845,"273":-0.07077062875032425,"274":-0.17333431541919708,"275":-0.30962368845939636,"276":-0.07373609393835068,"277":0.9200233817100525,"278":0.2995966970920563,"279":-0.4406720995903015,"280":0.11973337084054947,"281":0.30597180128097534,"282":0.08345913887023926,"283":-0.07028264552354813,"284":-1.2675155401229858,"285":0.08387844264507294,"286":-0.0866294875741005,"287":0.06608228385448456,"288":1.2377263307571411,"289":-1.22257661819458,"290":-0.08403753489255905,"291":-0.15310640633106232,"292":1.397125244140625,"293":0.03486107662320137,"294":1.0835838317871094,"295":0.0019491770071908832,"296":0.0707821324467659,"297":0.4250018298625946,"298":-0.11309127509593964,"299":0.29032570123672485,"300":-0.1994047462940216,"301":0.24364449083805084,"302":0.17169269919395447,"303":0.1315106749534607,"304":0.48968541622161865,"305":0.1474236249923706,"306":-0.1442061811685562,"307":0.2109675109386444,"308":-0.9235283732414246,"309":1.0516303777694702,"310":-0.08117741346359253,"311":0.42861422896385193,"312":-0.601396381855011,"313":-0.10324537009000778,"314":-0.3990778923034668,"315":-0.3092055916786194,"316":-0.17063763737678528,"317":0.5471840500831604,"318":0.262064129114151,"319":-0.5440905094146729,"320":-0.17163413763046265,"321":0.35676664113998413,"322":0.38184380531311035,"323":0.26864370703697205,"324":0.32741567492485046,"325":0.13382241129875183,"326":-0.22809892892837524,"327":0.21320834755897522,"328":-0.6386354565620422,"329":0.7203533053398132,"330":-0.10139410942792892,"331":0.13198687136173248,"332":-0.16333287954330444,"333":-0.1606396734714508,"334":-0.13729549944400787,"335":-0.2858854830265045,"336":-0.22393260896205902,"337":0.7089433073997498,"338":0.40278759598731995,"339":-0.2220928817987442,"340":-0.44627586007118225,"341":-0.04114338383078575,"342":0.1387687772512436,"343":0.4564935266971588,"344":-0.48977333307266235,"345":0.47886043787002563,"346":-0.2704613506793976,"347":0.3692970275878906,"348":0.3314523696899414,"349":-0.32310888171195984,"350":-0.45891574025154114,"351":-0.1120811253786087,"352":0.45646828413009644,"353":-0.5031031370162964,"354":0.5143216252326965,"355":-0.16610710322856903,"356":-0.4031258523464203,"357":0.06769848614931107,"358":0.273605078458786,"359":0.2858811616897583,"360":-0.18204756081104279,"361":0.29062432050704956,"362":0.2644084692001343,"363":0.2961145043373108,"364":0.20978210866451263,"365":0.19661365449428558,"366":-0.18410232663154602,"367":0.2665044665336609,"368":-0.6419984102249146,"369":0.7818477749824524,"370":-0.29526543617248535,"371":-0.15023073554039001,"372":-0.0753035619854927,"373":-0.13397909700870514,"374":0.004920146893709898,"375":-0.23291540145874023,"376":-0.23923587799072266,"377":0.407979816198349,"378":0.30154910683631897,"379":0.2423337996006012,"380":-0.3020339012145996,"381":0.6326392889022827,"382":0.6323087215423584,"383":0.2520918548107147,"384":-0.8278882503509521,"385":0.365619033575058,"386":-0.5907105207443237,"387":0.5569279789924622,"388":0.7553367614746094,"389":-0.6786515116691589,"390":-0.46764078736305237,"391":0.0677386075258255,"392":0.803184449672699,"393":-0.309543639421463,"394":0.7363081574440002,"395":-0.544721782207489,"396":-0.28003889322280884,"397":0.288799911737442,"398":0.2442602813243866,"399":0.5447061061859131}},"outputBias":{"rows":20,"columns":1,"weights":{"0":-0.9739943742752075,"1":0.004706748761236668,"2":-0.1904066801071167,"3":-0.9632307291030884,"4":0.13189812004566193,"5":-0.9862591028213501,"6":-0.8281372785568237,"7":-0.7355368137359619,"8":0.8745736479759216,"9":1.0042279958724976,"10":-0.9583030939102173,"11":-0.41074037551879883,"12":0.4497879445552826,"13":-0.9604089856147766,"14":0.04128355532884598,"15":-0.35328182578086853,"16":-1.0075560808181763,"17":0.009341691620647907,"18":-0.04889775067567825,"19":-0.36300086975097656}},"cellActivationMatrix":{"rows":20,"columns":1,"weights":{"0":0.18851032853126526,"1":-0.5674565434455872,"2":-0.5380541682243347,"3":-0.21405941247940063,"4":-0.3529090881347656,"5":-0.19905053079128265,"6":0.21607881784439087,"7":-0.25597938895225525,"8":0.5931438207626343,"9":-0.7344356775283813,"10":0.20487293601036072,"11":0.07026493549346924,"12":0.6542292833328247,"13":0.178971529006958,"14":0.28685110807418823,"15":0.5214176177978516,"16":0.19841031730175018,"17":-0.04899131879210472,"18":-0.473707914352417,"19":-0.0895058661699295}},"cellActivationHidden":{"rows":20,"columns":20,"weights":{"0":0.4213300943374634,"1":-0.822021484375,"2":-0.5620775818824768,"3":-0.4309667646884918,"4":-0.20042884349822998,"5":-0.40456798672676086,"6":0.5991265773773193,"7":-0.3963543772697449,"8":0.012892404571175575,"9":0.03802090883255005,"10":0.514735758304596,"11":0.036055970937013626,"12":0.12297894060611725,"13":0.5399138331413269,"14":0.004894005134701729,"15":0.5647315382957458,"16":0.40590542554855347,"17":0.6298671364784241,"18":-0.5737595558166504,"19":-0.18189239501953125,"20":-0.007128341589123011,"21":-0.7474052309989929,"22":-0.35270485281944275,"23":-0.07902397960424423,"24":-1.049772024154663,"25":-0.08550694584846497,"26":0.07186943292617798,"27":-0.12197478860616684,"28":1.072582721710205,"29":-1.2485910654067993,"30":-0.01802133210003376,"31":-0.9275675415992737,"32":1.283647894859314,"33":0.10375503450632095,"34":1.1835187673568726,"35":0.15538784861564636,"36":0.09033171832561493,"37":-0.6151908040046692,"38":-0.5798054933547974,"39":1.20356023311615,"40":-0.10420812666416168,"41":-0.4573500454425812,"42":-0.0535937137901783,"43":0.11840769648551941,"44":-0.21511304378509521,"45":0.09481757134199142,"46":-0.10396641492843628,"47":0.06112487241625786,"48":0.533919632434845,"49":-0.39819464087486267,"50":-0.19368897378444672,"51":-0.7583792805671692,"52":0.6701164841651917,"53":-0.13587117195129395,"54":0.415971577167511,"55":0.01705230213701725,"56":-0.14380165934562683,"57":-0.28968384861946106,"58":-0.6762568950653076,"59":0.6051374077796936,"60":-0.27546223998069763,"61":0.528226375579834,"62":0.43974408507347107,"63":0.03326483815908432,"64":0.6421973705291748,"65":0.2111496478319168,"66":-0.42056453227996826,"67":0.3138778507709503,"68":-0.22516891360282898,"69":0.0820450633764267,"70":-0.32189345359802246,"71":-0.06240488588809967,"72":-0.3477698564529419,"73":-0.2733653783798218,"74":-0.4661237299442291,"75":-0.47760364413261414,"76":-0.22420845925807953,"77":-0.32732507586479187,"78":0.3235446512699127,"79":0.06987755745649338,"80":-0.8671353459358215,"81":-0.8062413334846497,"82":-0.5667734742164612,"83":1.0118329524993896,"84":-0.40112411975860596,"85":0.8072726130485535,"86":-0.008015950210392475,"87":0.04291956499218941,"88":0.013564851135015488,"89":-0.06393363326787949,"90":-0.7782227993011475,"91":-0.20327335596084595,"92":0.31242746114730835,"93":-0.9441758990287781,"94":0.4103919267654419,"95":0.2778341770172119,"96":-1.0236928462982178,"97":-0.3675863742828369,"98":0.11840058863162994,"99":0.22767870128154755,"100":-0.364036500453949,"101":0.7062022089958191,"102":0.5269408822059631,"103":0.2735441327095032,"104":0.28628984093666077,"105":0.4510349929332733,"106":-0.5273072123527527,"107":0.3975919187068939,"108":-0.022991839796304703,"109":0.06912011653184891,"110":-0.3877803683280945,"111":-0.18191839754581451,"112":-0.17381849884986877,"113":-0.4911247491836548,"114":-0.06212621182203293,"115":-0.5849607586860657,"116":-0.3050583004951477,"117":-0.6808443665504456,"118":0.6038982272148132,"119":0.4014163315296173,"120":0.3825973570346832,"121":-0.1576627939939499,"122":-0.35187697410583496,"123":-0.1541939377784729,"124":-0.11825531721115112,"125":-0.2539881467819214,"126":0.26754701137542725,"127":-0.23558396100997925,"128":-0.08768516033887863,"129":0.03151242807507515,"130":0.4328646659851074,"131":0.4990914762020111,"132":0.03352591022849083,"133":0.4471912980079651,"134":-0.045600276440382004,"135":0.3307299315929413,"136":0.3117082715034485,"137":0.46045053005218506,"138":-0.14457736909389496,"139":-0.6548857092857361,"140":-0.28102192282676697,"141":0.2172529697418213,"142":0.2985532581806183,"143":0.12855544686317444,"144":0.11521425098180771,"145":0.3309778869152069,"146":-0.31317973136901855,"147":0.18497952818870544,"148":-0.004107793793082237,"149":0.05177588015794754,"150":-0.27993056178092957,"151":-0.48851072788238525,"152":0.019681505858898163,"153":-0.3564273715019226,"154":-0.08916518092155457,"155":-0.3915572464466095,"156":-0.20191514492034912,"157":-0.36210018396377563,"158":0.22862160205841064,"159":0.6501002907752991,"160":-0.06255415827035904,"161":-0.5863484740257263,"162":-0.4210670292377472,"163":-0.10360950976610184,"164":0.5126372575759888,"165":-0.057285089045763016,"166":0.43714475631713867,"167":-0.42059963941574097,"168":-0.15511637926101685,"169":-0.003599832532927394,"170":0.194337859749794,"171":0.1459134817123413,"172":-0.6866082549095154,"173":-0.11208789050579071,"174":-0.44265544414520264,"175":0.49075746536254883,"176":0.06780043244361877,"177":-0.23005922138690948,"178":-0.3494740128517151,"179":0.002832796424627304,"180":0.27402129769325256,"181":0.894704282283783,"182":0.4325941503047943,"183":0.049438513815402985,"184":-0.5404289960861206,"185":-0.17177771031856537,"186":-0.31141188740730286,"187":0.3353889584541321,"188":0.655817449092865,"189":-0.6674926280975342,"190":0.21956191956996918,"191":0.08240654319524765,"192":0.8312216997146606,"193":0.26756834983825684,"194":0.437881737947464,"195":-0.43087828159332275,"196":0.09131152182817459,"197":0.83595871925354,"198":0.06310340762138367,"199":-0.7410770654678345,"200":0.36154699325561523,"201":-0.781406819820404,"202":-0.6465007662773132,"203":-0.278830885887146,"204":-0.2584977447986603,"205":-0.3177010715007782,"206":0.41526222229003906,"207":-0.4009789228439331,"208":0.02079644240438938,"209":-0.05761761963367462,"210":0.3502200245857239,"211":0.2917478382587433,"212":0.18209733068943024,"213":0.48288848996162415,"214":0.09963128715753555,"215":0.5134154558181763,"216":0.3838527798652649,"217":0.43329083919525146,"218":-0.5933409929275513,"219":-0.5452749729156494,"220":-0.02382342331111431,"221":-0.2773708701133728,"222":-0.2730335593223572,"223":0.5623912215232849,"224":0.15812137722969055,"225":0.0963730588555336,"226":0.11625657230615616,"227":0.018757453188300133,"228":-0.4553750157356262,"229":0.2780587375164032,"230":-0.11740391701459885,"231":-0.21822838485240936,"232":0.07274708896875381,"233":0.001262930571101606,"234":-0.230823814868927,"235":0.07330699265003204,"236":-0.35185980796813965,"237":-0.31788066029548645,"238":0.005167256109416485,"239":-0.06706959754228592,"240":0.522593080997467,"241":-0.024776654317975044,"242":-0.1961161494255066,"243":-0.8577832579612732,"244":0.1441715806722641,"245":-0.49487826228141785,"246":0.2930091321468353,"247":-0.578837513923645,"248":0.07254521548748016,"249":-0.03557305783033371,"250":0.3889448642730713,"251":0.12576693296432495,"252":-0.3321974575519562,"253":0.7007070779800415,"254":-0.20193547010421753,"255":0.409072607755661,"256":0.6538571715354919,"257":0.13102099299430847,"258":-0.442423552274704,"259":-0.17904505133628845,"260":0.4265294075012207,"261":-0.7546437978744507,"262":-0.5707132816314697,"263":-0.29924970865249634,"264":-0.28916558623313904,"265":-0.4346419870853424,"266":0.448159784078598,"267":-0.45891672372817993,"268":-0.0419669970870018,"269":-0.03716292977333069,"270":0.4278845191001892,"271":0.021608060225844383,"272":0.285018652677536,"273":0.4405975341796875,"274":0.04058437794446945,"275":0.4593590497970581,"276":0.46674996614456177,"277":0.6359605193138123,"278":-0.553281307220459,"279":-0.025732848793268204,"280":1.5507463216781616,"281":1.2881122827529907,"282":0.6358558535575867,"283":-1.614052176475525,"284":0.4145863354206085,"285":-1.664538860321045,"286":0.25121009349823,"287":-0.09167854487895966,"288":-0.09789428859949112,"289":0.21428605914115906,"290":1.4850659370422363,"291":0.25653648376464844,"292":-0.42817574739456177,"293":1.610443353652954,"294":-0.3641037046909332,"295":-0.3562740683555603,"296":1.7015033960342407,"297":0.9230572581291199,"298":-0.07809700816869736,"299":-0.2910011112689972,"300":0.2191745787858963,"301":0.11107315868139267,"302":-0.10857389867305756,"303":-0.2512385845184326,"304":0.14489233493804932,"305":-0.2875417172908783,"306":0.24052676558494568,"307":-0.17042551934719086,"308":-0.2912522256374359,"309":0.2059381902217865,"310":0.3699489235877991,"311":0.601590096950531,"312":-0.5060549378395081,"313":0.3970160186290741,"314":-0.29314443469047546,"315":0.2602406442165375,"316":0.32842978835105896,"317":0.30258452892303467,"318":0.02178625762462616,"319":-0.6079776287078857,"320":0.290452778339386,"321":-0.6161811947822571,"322":-0.6009843349456787,"323":-0.0839143767952919,"324":-0.5705011487007141,"325":-0.3735748827457428,"326":0.48396024107933044,"327":-0.4420105814933777,"328":0.09205015003681183,"329":-0.15358591079711914,"330":0.3226093351840973,"331":0.05978892371058464,"332":0.30856549739837646,"333":0.4316439926624298,"334":0.409760981798172,"335":0.3981741964817047,"336":0.20311491191387177,"337":0.3865829408168793,"338":-0.49485158920288086,"339":-0.10157918184995651,"340":0.3005291223526001,"341":0.7050055265426636,"342":0.5637485980987549,"343":-0.13673192262649536,"344":-0.30899283289909363,"345":-0.29210877418518066,"346":-0.19684022665023804,"347":0.5106556415557861,"348":-0.01359111163765192,"349":0.03098142333328724,"350":0.2952761948108673,"351":-0.3207196593284607,"352":0.34654584527015686,"353":0.3224659562110901,"354":-0.002663152292370796,"355":-0.5849671959877014,"356":0.20552079379558563,"357":0.1063409373164177,"358":0.33944618701934814,"359":0.21476975083351135,"360":0.20431536436080933,"361":-0.721376895904541,"362":-0.41789114475250244,"363":-0.31329017877578735,"364":0.507502019405365,"365":-0.3026271462440491,"366":0.20413880050182343,"367":-0.27328333258628845,"368":0.17351558804512024,"369":-0.16596634685993195,"370":0.27761152386665344,"371":-0.12419735640287399,"372":-0.061579156666994095,"373":0.18832984566688538,"374":-0.48012635111808777,"375":0.2680007815361023,"376":0.27113211154937744,"377":-0.27829545736312866,"378":-0.8823968172073364,"379":-0.1664150208234787,"380":-0.19876396656036377,"381":0.18808557093143463,"382":0.48043930530548096,"383":-0.319304883480072,"384":0.006870836950838566,"385":0.18914005160331726,"386":-0.24861328303813934,"387":0.23000489175319672,"388":0.1880073845386505,"389":-0.038342468440532684,"390":-0.17201468348503113,"391":0.321079283952713,"392":-0.19695545732975006,"393":-0.18234622478485107,"394":0.1396324187517166,"395":-0.339838445186615,"396":0.13478034734725952,"397":0.32143935561180115,"398":0.3631958067417145,"399":-0.19103872776031494}},"cellActivationBias":{"rows":20,"columns":1,"weights":{"0":-0.5953660607337952,"1":0.13555628061294556,"2":0.08052054047584534,"3":0.38799843192100525,"4":-0.52596116065979,"5":0.5638076066970825,"6":-0.13757213950157166,"7":-0.0328894704580307,"8":0.332344114780426,"9":-0.28631752729415894,"10":-0.5623720288276672,"11":-0.6966544985771179,"12":-0.4929389953613281,"13":-0.7159185409545898,"14":0.5459970235824585,"15":-0.01854797452688217,"16":-0.4679311513900757,"17":-1.0688141584396362,"18":-0.005269187968224287,"19":0.8151524662971497}}}],"outputConnector":{"rows":1,"columns":20,"weights":{"0":0.9315524697303772,"1":-0.8232033252716064,"2":-0.8852764964103699,"3":-0.9256275296211243,"4":-0.5119898915290833,"5":-0.9360792636871338,"6":0.8727836608886719,"7":-0.8773326873779297,"8":0.6054584980010986,"9":-0.7075057029724121,"10":0.8994210362434387,"11":-0.08596507459878922,"12":0.8735766410827637,"13":0.9256393909454346,"14":0.4179937541484833,"15":0.892988383769989,"16":0.9299668669700623,"17":0.011735314503312111,"18":-0.8783637881278992,"19":0.19498933851718903}},"output":{"rows":1,"columns":1,"weights":{"0":1.051546335220337}}};
  var output = [];
  var states = [];
  var prevStates;
  var state;
  var max = input.length;
  for (var _i = 0; _i < max; _i++) {
    prevStates = states;
    states = [];
    states[0] = {
      name: 'forwardFn',
      left: null,
      right: null,
      product: new Matrix(1, 1)
    };
    states[1] = {
      name: 'multiply',
      left: json.hiddenLayers[0].inputMatrix,
      right: states[0].product,
      product: new Matrix(20, 1)
    };
    states[2] = {
      name: 'multiply',
      left: json.hiddenLayers[0].inputHidden,
      right: typeof prevStates[25] === 'object' ? prevStates[25].product : new Matrix(20, 1),
      product: new Matrix(20, 1)
    };
    states[3] = {
      name: 'add',
      left: states[1].product,
      right: states[2].product,
      product: new Matrix(20, 1)
    };
    states[4] = {
      name: 'add',
      left: states[3].product,
      right: json.hiddenLayers[0].inputBias,
      product: new Matrix(20, 1)
    };
    states[5] = {
      name: 'sigmoid',
      left: states[4].product,
      right: null,
      product: new Matrix(20, 1)
    };
    states[6] = {
      name: 'multiply',
      left: json.hiddenLayers[0].forgetMatrix,
      right: states[0].product,
      product: new Matrix(20, 1)
    };
    states[7] = {
      name: 'multiply',
      left: json.hiddenLayers[0].forgetHidden,
      right: states[2].right,
      product: new Matrix(20, 1)
    };
    states[8] = {
      name: 'add',
      left: states[6].product,
      right: states[7].product,
      product: new Matrix(20, 1)
    };
    states[9] = {
      name: 'add',
      left: states[8].product,
      right: json.hiddenLayers[0].forgetBias,
      product: new Matrix(20, 1)
    };
    states[10] = {
      name: 'sigmoid',
      left: states[9].product,
      right: null,
      product: new Matrix(20, 1)
    };
    states[11] = {
      name: 'multiply',
      left: json.hiddenLayers[0].outputMatrix,
      right: states[0].product,
      product: new Matrix(20, 1)
    };
    states[12] = {
      name: 'multiply',
      left: json.hiddenLayers[0].outputHidden,
      right: states[2].right,
      product: new Matrix(20, 1)
    };
    states[13] = {
      name: 'add',
      left: states[11].product,
      right: states[12].product,
      product: new Matrix(20, 1)
    };
    states[14] = {
      name: 'add',
      left: states[13].product,
      right: json.hiddenLayers[0].outputBias,
      product: new Matrix(20, 1)
    };
    states[15] = {
      name: 'sigmoid',
      left: states[14].product,
      right: null,
      product: new Matrix(20, 1)
    };
    states[16] = {
      name: 'multiply',
      left: json.hiddenLayers[0].cellActivationMatrix,
      right: states[0].product,
      product: new Matrix(20, 1)
    };
    states[17] = {
      name: 'multiply',
      left: json.hiddenLayers[0].cellActivationHidden,
      right: states[2].right,
      product: new Matrix(20, 1)
    };
    states[18] = {
      name: 'add',
      left: states[16].product,
      right: states[17].product,
      product: new Matrix(20, 1)
    };
    states[19] = {
      name: 'add',
      left: states[18].product,
      right: json.hiddenLayers[0].cellActivationBias,
      product: new Matrix(20, 1)
    };
    states[20] = {
      name: 'tanh',
      left: states[19].product,
      right: null,
      product: new Matrix(20, 1)
    };
    states[21] = {
      name: 'multiplyElement',
      left: states[10].product,
      right: states[2].right,
      product: new Matrix(20, 1)
    };
    states[22] = {
      name: 'multiplyElement',
      left: states[5].product,
      right: states[20].product,
      product: new Matrix(20, 1)
    };
    states[23] = {
      name: 'add',
      left: states[21].product,
      right: states[22].product,
      product: new Matrix(20, 1)
    };
    states[24] = {
      name: 'tanh',
      left: states[23].product,
      right: null,
      product: new Matrix(20, 1)
    };
    states[25] = {
      name: 'multiplyElement',
      left: states[15].product,
      right: states[24].product,
      product: new Matrix(20, 1)
    };
    states[26] = {
      name: 'multiply',
      left: json.outputConnector,
      right: states[25].product,
      product: new Matrix(1, 1)
    };
    states[27] = {
      name: 'add',
      left: states[26].product,
      right: json.output,
      product: new Matrix(1, 1)
    };
    for (var stateIndex = 0, stateMax = 28; stateIndex < stateMax; stateIndex++) {
      state = states[stateIndex];
      var product = state.product;
      var left = state.left;
      var right = state.right;
      
      switch (state.name) {
        case 'forwardFn':
          
                product.weights = [input[_i]];
              
          break;
        case 'multiply': //compiled from src/recurrent/matrix/multiply.js
          
          const leftRows = left.rows;
          const leftColumns = left.columns;
          const rightColumns = right.columns;
        
          // loop over rows of left
          for (let leftRow = 0; leftRow < leftRows; leftRow++) {
            const leftRowBase = leftColumns * leftRow;
            const rightRowBase = rightColumns * leftRow;
            // loop over cols of right
            for (let rightColumn = 0; rightColumn < rightColumns; rightColumn++) {
              // dot product loop
              let dot = 0;
              // loop over columns of left
              for (let leftColumn = 0; leftColumn < leftColumns; leftColumn++) {
                const rightColumnBase = rightColumns * leftColumn;
                const leftIndex = leftRowBase + leftColumn;
                const rightIndex = rightColumnBase + rightColumn;
                dot += left.weights[leftIndex] * right.weights[rightIndex];
                
                
              }
              product.weights[rightRowBase + rightColumn] = dot;
            }
          }
        
          break;
        case 'add': //compiled from src/recurrent/matrix/add.js
          
          for (let i = 0; i < left.weights.length; i++) {
            product.weights[i] = left.weights[i] + right.weights[i];
            
          }
        
          break;
        case 'sigmoid': //compiled from src/recurrent/matrix/sigmoid.js
          
          // sigmoid nonlinearity
          for (let i = 0; i < left.weights.length; i++) {
            product.weights[i] = 1 / (1 + Math.exp(-left.weights[i]));
            
          }
        
          break;
        case 'tanh': //compiled from src/recurrent/matrix/tanh.js
          
          // tanh nonlinearity
          for (let i = 0; i < left.weights.length; i++) {
            product.weights[i] = Math.tanh(left.weights[i]);
            
          }
        
          break;
        case 'multiplyElement': //compiled from src/recurrent/matrix/multiply-element.js
          
          const { weights } = left;
          for (let i = 0; i < weights.length; i++) {
            product.weights[i] = left.weights[i] * right.weights[i];
            
          }
        
          break;
      }
    }
    output = state.product.weights;
  }
  return output[0];
  
  
  
  function Matrix(rows, columns) {
    this.rows = rows;
    this.columns = columns;
    this.weights = zeros(rows * columns);
  }
  function zeros(size) {
  return new Float32Array(size);
}
  function softmax(m) {
  const result = new Matrix(m.rows, m.columns); // probability volume
  let maxVal = -999999;
  for (let i = 0; i < m.weights.length; i++) {
    if (m.weights[i] > maxVal) {
      maxVal = m.weights[i];
    }
  }

  let s = 0;
  for (let i = 0; i < m.weights.length; i++) {
    result.weights[i] = Math.exp(m.weights[i] - maxVal);
    s += result.weights[i];
  }

  for (let i = 0; i < m.weights.length; i++) {
    result.weights[i] /= s;
  }

  // no backward pass here needed
  // since we will use the computed probabilities outside
  // to set gradients directly on m
  return result;
}
  function randomFloat(a, b) {
  return Math.random() * (b - a) + a;
}
  function sampleI(m) {
  // sample argmax from w, assuming w are
  // probabilities that sum to one
  const r = randomFloat(0, 1);
  let x = 0;
  let i = 0;
  const w = m.weights;

  while (true) {
    x += w[i];
    if (x > r) {
      return i;
    }
    i++;
  }
}
  function maxI(m) {
  // argmax of array w
  const { weights } = m;
  let maxv = weights[0];
  let maxix = 0;
  for (let i = 1; i < weights.length; i++) {
    const v = weights[i];
    if (v < maxv) continue;

    maxix = i;
    maxv = v;
  }
  return maxix;
}
};